digraph Tree {
node [shape=box, style="filled, rounded", color="black", fontname="helvetica"] ;
edge [fontname="helvetica"] ;
0 [label="소비자물가지수 <= 0.011\ngini = 0.49\nsamples = 119\nvalue = [68, 51]\nclass = 0", fillcolor="#f8e0ce"] ;
1 [label="날짜 <= 0.7\ngini = 0.15\nsamples = 61\nvalue = [56, 5]\nclass = 0", fillcolor="#e78c4b"] ;
0 -> 1 [labeldistance=2.5, labelangle=45, headlabel="True"] ;
2 [label="gini = 0.0\nsamples = 51\nvalue = [51, 0]\nclass = 0", fillcolor="#e58139"] ;
1 -> 2 ;
3 [label="전년_동월_대비 <= 0.5\ngini = 0.5\nsamples = 10\nvalue = [5, 5]\nclass = 0", fillcolor="#ffffff"] ;
1 -> 3 ;
4 [label="날짜 <= 4.05\ngini = 0.278\nsamples = 6\nvalue = [5, 1]\nclass = 0", fillcolor="#ea9a61"] ;
3 -> 4 ;
5 [label="gini = 0.0\nsamples = 1\nvalue = [0, 1]\nclass = 1", fillcolor="#399de5"] ;
4 -> 5 ;
6 [label="gini = 0.0\nsamples = 5\nvalue = [5, 0]\nclass = 0", fillcolor="#e58139"] ;
4 -> 6 ;
7 [label="gini = 0.0\nsamples = 4\nvalue = [0, 4]\nclass = 1", fillcolor="#399de5"] ;
3 -> 7 ;
8 [label="등락률 <= 0.002\ngini = 0.328\nsamples = 58\nvalue = [12, 46]\nclass = 1", fillcolor="#6db7ec"] ;
0 -> 8 [labeldistance=2.5, labelangle=-45, headlabel="False"] ;
9 [label="날짜 <= -6.95\ngini = 0.05\nsamples = 39\nvalue = [1, 38]\nclass = 1", fillcolor="#3ea0e6"] ;
8 -> 9 ;
10 [label="소매판매지수 <= -3.633\ngini = 0.5\nsamples = 2\nvalue = [1, 1]\nclass = 0", fillcolor="#ffffff"] ;
9 -> 10 ;
11 [label="gini = 0.0\nsamples = 1\nvalue = [1, 0]\nclass = 0", fillcolor="#e58139"] ;
10 -> 11 ;
12 [label="gini = 0.0\nsamples = 1\nvalue = [0, 1]\nclass = 1", fillcolor="#399de5"] ;
10 -> 12 ;
13 [label="gini = 0.0\nsamples = 37\nvalue = [0, 37]\nclass = 1", fillcolor="#399de5"] ;
9 -> 13 ;
14 [label="소매판매지수 <= 14.308\ngini = 0.488\nsamples = 19\nvalue = [11, 8]\nclass = 0", fillcolor="#f8ddc9"] ;
8 -> 14 ;
15 [label="등락률 <= 0.008\ngini = 0.26\nsamples = 13\nvalue = [11, 2]\nclass = 0", fillcolor="#ea985d"] ;
14 -> 15 ;
16 [label="소비자물가지수 <= 0.015\ngini = 0.153\nsamples = 12\nvalue = [11, 1]\nclass = 0", fillcolor="#e78c4b"] ;
15 -> 16 ;
17 [label="소매판매지수 <= 7.358\ngini = 0.5\nsamples = 2\nvalue = [1, 1]\nclass = 0", fillcolor="#ffffff"] ;
16 -> 17 ;
18 [label="gini = 0.0\nsamples = 1\nvalue = [1, 0]\nclass = 0", fillcolor="#e58139"] ;
17 -> 18 ;
19 [label="gini = 0.0\nsamples = 1\nvalue = [0, 1]\nclass = 1", fillcolor="#399de5"] ;
17 -> 19 ;
20 [label="gini = 0.0\nsamples = 10\nvalue = [10, 0]\nclass = 0", fillcolor="#e58139"] ;
16 -> 20 ;
21 [label="gini = 0.0\nsamples = 1\nvalue = [0, 1]\nclass = 1", fillcolor="#399de5"] ;
15 -> 21 ;
22 [label="gini = 0.0\nsamples = 6\nvalue = [0, 6]\nclass = 1", fillcolor="#399de5"] ;
14 -> 22 ;
}